delta_time,x_bias,y_bias,spot_1_bias,spot_2_bias,spot_3_bias,spot_4_bias,spot_5_bias,spot_6_bias,spot_1_bias_xycorr,spot_2_bias_xycorr,spot_3_bias_xycorr,spot_4_bias_xycorr,spot_5_bias_xycorr,spot_6_bias_xycorr,total_sigma,rgt_corr_sigma,spot_corr_sigma,xy_corr_sigma
25105007.996878196,-4.6500661510340064,4.181549515435746,,,-0.025319509597143616,-0.0036528060141206775,-0.00026152658170937743,0.029233842192975094,,,0.0017757054398809132,-0.0021517061290564896,-0.0018469974836398024,0.0022229981728183485,0.056868283650351355,0.05320413156968026,0.04517077638886857,0.04533088209360314
25396736.518026795,-1.8876671438510257,4.198071014120777,-0.06056626322861062,0.006032682851076394,-0.0029658729592041484,0.0007852808310534399,0.019630532477672432,0.03708364002800595,-0.028468170246874373,0.02687657001398495,0.0037927854283992587,-0.0033541207481765736,-0.0027570500384994433,0.003909985591168868,0.05469904843486757,0.04959679042689676,0.04355192997765318,0.04389058829090257
25920014.26546235,-1.1765725115031904,4.670321350373949,-0.055802431777796,-0.0016424412389566513,-0.0022961200888053338,-0.001469900322352141,0.02493809846987865,0.03627279495801758,-0.024637890608810862,0.022954997808143245,0.0032306006723381666,-0.0029256237600468254,-0.001861406323809391,0.003239322212159817,0.05495608203870684,0.048800218306500776,0.04094267027393027,0.04121258309238143
26440536.113733888,-2.612302706454809,4.513813292496655,-0.03140133304488662,-0.005228664133787533,-0.013033758098378064,-0.00011133644184185449,0.018410463560596023,0.03136462815828589,0.0015498974581925745,0.013214825153967458,-0.00426207616319107,-0.005524561015007072,-0.00277966827402827,-0.0021984171599463906,0.054847837714733325,0.04980338742046093,0.041317377526310615,0.04129796576677803
26955320.157455936,-3.521380056006646,3.993219994339475,-0.02554478838942306,0.0012788034317011174,-0.019794079627472056,0.002396931123334043,0.01496881620035144,0.0266943172615051,0.006620274822593955,0.013975196938853362,-0.009724116508390402,-0.005953646605424329,-7.428593873347509e-05,-0.004843422708871587,0.05271527937536222,0.048682704884095755,0.03999212001183577,0.04037869365342525
27475838.97376299,-2.135520225076146,3.8534809521089177,-0.02946076278387269,0.005455515028542003,-0.015185009764350697,-0.00251171777573848,0.018557938803765307,0.023144036491662388,-0.0010396859585350908,0.021904729272967365,-0.008837396120768986,-0.007476876178471263,6.826935765701428e-05,-0.004619040372818939,0.05352415436482963,0.048572301894672,0.04124969924797322,0.04195714494160656
28007428.223506995,-1.0680174220409018,3.195975940241878,-0.04192501611643025,0.0064452224716110415,-0.0021452779243791432,-0.0022238364347896516,0.015728041252306327,0.024120866751677565,-0.019955658104805568,0.02231268435242941,0.0020181028210226972,-0.004131701556628621,-0.0018029492251075375,0.001559521713121713,0.04949731160393429,0.04427685181048295,0.03983874482587255,0.04026720279644281
28511134.56003052,-1.8566251554756055,2.298210960354261,-0.044778008732788775,-0.002377062728378584,0.0030367430034117437,0.004961948718274509,0.01024877372097193,0.028907606018506428,-0.026166466766972908,0.006048054952562458,0.00933641237114714,0.0007796661688205416,0.0008128500164633212,0.009189483257971242,0.04455054460364189,0.03995370811897899,0.03692487722163162,0.037499715547975335
29031602.14437417,-2.8590296953850247,1.965880182224629,,,-0.010172508665305462,-0.003273839307047984,-0.0056992118024029054,0.019145559774759506,,,0.004320864393801451,-0.004626343056250277,-0.004350876108052582,0.004656354770491418,0.04177900019254454,0.03939440228894852,0.035955924709031514,0.03654821448815013
29546433.761235263,-2.9715265545416067,1.619978194140713,,,-0.00941530321106613,-0.0015539630253164876,-0.006981757727226543,0.017951023963611108,,,0.004100757285643514,-0.0044212178662062715,-0.004117747083779587,0.004438207664326472,0.043001611505691636,0.04002818715778038,0.03698743387821922,0.03750784140330989
30066909.636790838,-3.5176161026341535,1.2812457733932037,,-0.00833279214222345,-0.009045423680822668,0.004760923521487142,-0.006070605355008412,0.018687897656571757,,-0.007383193575965861,0.00437926368256495,-0.0010637491322744892,-0.0007216961268540068,0.0047893751525186,0.04304759791658702,0.04034252441954298,0.03725459291323897,0.03749613724504625
30587330.035846956,-4.1565296061893715,0.8485272776844407,-0.031205447825819677,-0.017208250542193538,-0.00042507216422050625,0.019759354663931517,0.001935544559067942,0.027143871309225322,-0.01577005608788602,-0.024350499425622056,0.01120053953519194,0.008783630075108729,0.008755188895324938,0.011381197007877607,0.04225109110080465,0.039288830236173966,0.03557928526013765,0.03569505710966448
31102237.883059837,-2.0523214594744665,0.01189335423146636,-0.00038794190938446285,-0.0009399950463449154,-0.00923820726967029,0.007407022448683708,-0.004799769540980922,0.007958891317699715,-0.005337582756969409,0.004774039508645807,-0.007364695627764703,0.004915248604624361,-0.002784351995160277,0.005797342266641303,0.040368555451293205,0.0382665510804009,0.03536366807893883,0.035903391184871604
31622628.723756716,0.5329005568997699,-0.4526630771171534,-0.0008194405688988864,0.0016391234943834909,-0.01183480670626901,0.002229652226973177,0.004046004695750564,0.004739466858066085,0.003713810290920555,0.0031747798767338287,-0.011451717604997188,0.0007651817079150671,0.002511945453070723,0.001286000276212926,0.03893177659368257,0.035776307170441,0.03470007223863898,0.0355067187189643
32143000.464001987,1.7605045264530852,-0.9965916825389376,-0.01777690071015985,0.007356345479382646,-0.007436848878466251,0.001960934770383099,0.009060002094334246,0.006836467244524662,-0.006352124997386691,0.009051622648871578,-0.002611493232844274,-0.00283763608153933,0.007351168179054958,-0.004601536516143954,0.041517199435140595,0.038613300519440154,0.03638146551645179,0.03730306626378436
32657933.143938318,1.734530741005783,-1.2066203889344684,-0.0320833702326531,0.010654204436046555,0.006226991465527291,0.002660181834433123,0.009847976020138653,0.0026940164765093186,-0.01919961896174637,0.01393227536694568,0.011013630300769918,-0.0021035279212709554,0.006565379894866995,-0.010208138679442426,0.04375740053711432,0.041546006036930164,0.036435057590689664,0.039947401799759696
33181107.09260863,0.9351930970071486,-0.613678666291464,-0.02139280221528929,0.007076640185451643,0.0070408391254223835,0.004385024750996161,0.005549050619836281,-0.0026587524664201724,-0.014717165961950437,0.008577852404019558,0.009611862436995,0.0018345339627681189,0.0040398941504214084,-0.00934697699188352,0.04378191000224451,0.04063213533332398,0.038175277997461794,0.04019695109175689
33695966.94362067,0.8878769463935067,-0.8303083574290189,-0.018673453532025184,0.003169469803113764,0.0041013123939680875,0.003784064644376197,0.005897734330932846,0.0017208723596401562,-0.010585138195632362,0.006290630606937133,0.0065573491941706705,0.0013227042866865346,0.002795792897364466,-0.006381338789380959,0.04372994021698184,0.04088478236682493,0.03927986896905878,0.04023083649960824
34213608.986553505,0.9810021815883547,-2.689052604877705,-0.037900519104883096,-0.0033736834859523983,0.008092949618964318,-0.0017274435628436757,0.017325325067649673,0.01758337146705884,-0.016333779921276777,0.012376973512829475,0.011120418781160263,-0.00534741599590555,0.0020173703617899228,-0.003833566738388164,0.05171081122990641,0.048502631848635035,0.04180904246164119,0.043659875866453
34734042.951591045,1.5161195808415877,-3.975395785779265,-0.045586587712720575,-0.009219016642328942,0.004868828608215238,-0.00572188206722121,0.024460314760999958,0.03119834305306951,-0.013463874731182572,0.013990166203324557,0.009529350981368858,-0.011336434352675168,0.00195673911455575,-0.0006759472152629215,0.060465455110655826,0.05627710559432856,0.04471438713798233,0.04648346917842247
35246130.64084782,1.3482679651670906,-3.6613281614217508,-0.029218233909525385,-0.016707443217102876,-0.0058265657797590045,-0.0036354882673785695,0.022871297520822634,0.032516433652930485,0.00035790050626137784,0.00493542993297702,-0.0017574916507258227,-0.008146749308944372,0.0015970154075291942,0.0030138951130936494,0.05966356235098419,0.0554211986951381,0.046329261274408715,0.04657398927952799
35769303.42564428,0.544825604947727,-3.817209658874127,-0.027276646313136806,-0.024841491149219352,-0.0033434976390507216,0.00032592476181338126,0.024902336193225655,0.03023337414637413,0.001575840545180386,0.0003641692454570208,-0.0014238384498113414,-0.0019453971095872394,-1.669564414123689e-05,0.0014459214128729816,0.061003085400565565,0.057495897862000975,0.04818146745754714,0.048101821055716774
36289772.90673661,-0.2466276538305696,-4.599390754186089,-0.042973665353310965,-0.028598315307530344,0.011150798110041741,-0.0006930800035036213,0.030635910163821722,0.030478352390469934,-0.010381952121842675,0.004572078355689214,0.01107062887520053,-0.0011523151915721883,-0.0020964103068704942,-0.002012029610417167,0.06377950468691117,0.0605531981695019,0.04717607848289857,0.04790042864653941
36804603.81607684,-1.2712993010794746,-4.761829927820901,-0.05103355508503624,-0.028338457311470312,0.020082252873170642,-0.006475589094369003,0.033230587087247285,0.032534761530462336,-0.019868673131818716,0.009005378010112417,0.017217270827480907,-0.003883257645307755,-0.003797515082563706,0.0013267970222222527,0.06551383692696416,0.060796260730881166,0.04596517883556065,0.04814456784928339
37325072.16438767,-1.8009368015679665,-4.602407072589394,-0.04630397587243584,-0.027277302433806123,0.020162027648098668,-0.01299850286784021,0.03347313709097922,0.03294461643503186,-0.017567871581661364,0.01040045731606246,0.015774972665450106,-0.008563658647959972,-0.004143818111309982,0.004099918359474934,0.06753103728917578,0.06177003568983676,0.047202240834441425,0.04942684321576335
37845509.25290045,-2.62991841876253,-4.640420415794066,-0.0471319253116703,-0.026226319692499677,0.020402478630998748,-0.016006253280920136,0.03658505942831136,0.03237696022575566,-0.020105019616691477,0.014163777746190164,0.013776378550223902,-0.009346963639162462,-0.0037595269488447133,0.005271353908339011,0.0658205250952641,0.061277731223071,0.04781625125337099,0.05007935611954112
38360328.78476964,-2.9824920420173284,-4.243413534902231,-0.027377089752588336,-0.03449189676784536,0.01506719568775933,-0.015490855879292054,0.03295114706384797,0.029341499648096195,-0.003998724684882514,0.004163846608336281,0.007437165938360244,-0.007860042566563459,-0.005678351457373649,0.005936106162161589,0.062414403157782954,0.05892511879231504,0.04797799143929378,0.04879001342050748
38880865.04372328,-1.1525231833482696,-3.5884089698866815,-0.021212504425998143,-0.03011903293205648,0.007541569237572892,-0.008317310566291487,0.02230471326992138,0.02980256541685809,0.0019091121366643703,-0.0014690600495904068,0.00478116211822051,-0.005555880954290079,-0.006332381853950103,0.00666704860303931,0.057927006857196116,0.05520828085679006,0.04631011768202221,0.0468384727632058
39398456.52268944,0.4640642362927798,-2.7774332587033155,-0.020024747950708997,-0.019431379408457666,0.004108730056205527,-0.0038907411247387906,0.011421321796454659,0.0278168166312313,0.0011783099317830223,-0.0012591117654571977,0.005628260841450936,-0.005407963602473622,-0.006741425828544681,0.006601930423123826,0.056646369995652715,0.05074440059816639,0.04472075848757941,0.045270629484839384
39916106.27518314,1.248970364896633,-1.8047295798970664,-0.017440892558896703,-0.009487021925886994,0.005254238191696872,-0.001526547600579522,0.0015844522326540441,0.021615771661019696,-0.0013512651655023728,-0.00047850665841623496,0.008798423039488336,-0.005075428598306086,-0.0074163358868272085,0.005523113269165652,0.052386030891891026,0.04628044582858113,0.042929589746708546,0.04365212588351202
40436584.31549086,1.4580567130179505,-1.2416164008284463,-0.010666558829499117,-0.00596871645024842,0.0011247540988317027,-0.0017952988511209806,-0.0025608895447625187,0.019866709576795528,0.0018687113673794057,-0.0015393047304260682,0.005175503386334491,-0.005850021216994384,-0.006988692647405718,0.007333803840889078,0.04755096494941225,0.043917902537224156,0.041748977371234196,0.04242063494023443
40951405.895722546,0.48838821497015167,-1.2856074028063544,-0.0015030817732840371,-0.013477887635629085,-0.0034681579965637078,-0.002844958087737143,0.0007616446140830682,0.02053244087913074,0.00898587507120782,-0.005877884345042731,-0.0020286831257453385,-0.004283817302127904,-0.006841591691459237,0.010046101393097008,0.046602308920238505,0.04336735742406766,0.040888216663661235,0.042034547868304614
41471916.31982389,0.10195370203603703,-1.192981773620404,0.004607132348370058,-0.01707547332243662,-0.007530978381027706,-0.0016173435919519395,0.0019113362198689954,0.019705326727176137,0.013483928226138623,-0.008987305790647259,-0.007141257216759153,-0.0020053100245295734,-0.00618153126838448,0.010831476074155102,0.04503447753852606,0.04234571533486027,0.03923370826832573,0.04119016262966138
41992392.263865106,1.336538577875726,-1.4617847064200644,-0.005964931134075907,-0.012074588183467669,-0.00490266449373785,0.0005785983631986833,-0.00024898535008027663,0.022612570798169654,0.007870521663411666,-0.005742137325430598,-0.0011603616236102027,-0.0031631172269194073,-0.006588750067580116,0.008783844580258084,0.045454478652489076,0.04352478976878171,0.040677783785234366,0.04159552795828551
42507181.32973279,1.8305542807065913,-1.84595124328703,-0.014182274793523107,-0.01087584126424631,-0.0016304971648793045,0.000941307205609014,0.0005206632633757429,0.025226642753668472,0.0036326962339662404,-0.0032971195499777173,0.003484584055341024,-0.004176816993390888,-0.007057662460703563,0.007414318714527075,0.04579514402916209,0.04390635725479805,0.04008504090857663,0.040737473043713175
43027690.13064,1.0583905229289117,-1.6026818097682802,-0.011614053043685292,-0.011893771587736876,0.001897567375685583,0.0004101863350823276,0.0007508237970723928,0.0204492471235794,0.002556407097219998,-0.0037467490630290305,0.004908374949147125,-0.0026004542790433105,-0.007396499619282609,0.006278920914846621,0.045143772159716856,0.04279779672888459,0.039972218594791165,0.04057526382053209
43545397.358568385,0.686934563917475,-1.380466935653066,-0.009276345927743979,-0.010261393507424107,0.0023679325462440354,-0.0020453619424557227,0.0010224062104920804,0.018192762620888224,0.0023805015515561325,-0.0025776690872392903,0.004354054355401427,-0.004031089323525956,-0.00666065333688283,0.0065348558409424095,0.04516726112282045,0.04301860699546771,0.04089408624692342,0.04144239812532499
44062988.68028553,0.268500218474962,-1.3321214202389409,-0.007644623419778378,-0.010973281621490617,0.0026090188121532356,-0.003198694335005355,0.0025395342049510023,0.016668046359182613,0.0026412556028510737,-0.0023938038930370422,0.003461711570261946,-0.004051021215864349,-0.006039063879995798,0.006380921815738491,0.04627446388661397,0.04288904752310081,0.04097607099824615,0.04145928831009818
44583434.83353892,0.7827387100431222,-1.8221800672295263,-0.016846318302880837,-0.009901532174782549,0.006023412315359422,-0.0038192687327819673,0.004042322935173973,0.020501383959892573,-0.0017669563762165784,0.0006096432122012421,0.008312110244515973,-0.006107178817133039,-0.006463827079956929,0.005416208816649325,0.048868173059861165,0.04518056512453873,0.04184467773071969,0.0425628786572297
45101024.24075833,1.8300387256115431,-2.147103951726155,-0.027223447235054665,-0.004892026750814741,0.007962087853896477,-0.0030986888255695277,0.0038461599737480835,0.023405914983779516,-0.007248842856881488,0.004821369738085019,0.013111516123390225,-0.008252125258222711,-0.00584621409848791,0.0034142963520417836,0.04797834281667784,0.044792492509434186,0.03920951732524442,0.04071254529284006
45618732.18738359,2.144219167134002,-2.1129722108794615,-0.029028066881890968,-0.0017757327059042445,0.007796411431505613,-0.004175273003992101,0.003250332362116814,0.023932328798175435,-0.008535374502143681,0.006772022050862214,0.013793702424998602,-0.010186206247505597,-0.005265926942936701,0.003421783216515173,0.04726791670869341,0.04455592614626627,0.0384819985041319,0.040372254828079726
46139215.74840966,1.8738058215949112,-2.0503021342542382,-0.028597647770499526,-0.001652657977788925,0.008347681882859016,-0.004194664742579661,0.004409359574828812,0.021687929033193876,-0.009217670906049216,0.0072506599131212475,0.013606289967182359,-0.009464551256188511,-0.004465978809549484,0.0022912510915586316,0.052502109365713694,0.048218442933116695,0.04308964040784327,0.04472811126909548
46416521.85895181,1.8952266471974026,-2.0129288476697065,-0.029045807417877764,-0.0005105877503125501,0.007972409947814079,-0.00413643821701521,0.005056325956266862,0.020664097481124275,-0.009883181996332167,0.008065227246249976,0.013283484481224232,-0.009452491837825639,-0.0034975771749320736,0.001484539281638376,0.05415606152530825,0.049950148365998676,0.045096425968326186,0.04668951589565285
49491491.45692062,3.7608186384719566,-0.14368750768892177,-0.025246805704328894,0.018138877973890893,0.0051832969375150886,0.00899863653233786,-0.010508654044480219,0.003434648305064899,-0.015011592537548036,0.008062158909838316,0.015351965401764239,-0.001233928764489576,-0.00040004508670074703,-0.0067685579228697655,0.0453046528982823,0.041351740198568764,0.036176064261612344,0.038738455540720494
49867578.6127011,3.7603872569259456,-0.13436360783872028,-0.02778548212164065,0.01892102437506248,0.0078651816406155,0.00970160534864146,-0.010761944112079005,0.0020596148693949614,-0.017644841168982076,0.008773087681461908,0.018031378883486382,-0.0004845598075387986,-0.0006019468721911109,-0.008073118715715855,0.04352782791120142,0.04090963591277503,0.034749750239396915,0.038294899234815966
50294717.519286335,4.085969692980831,-0.10454318902347721,-0.029539766527171926,0.021165933519546782,0.007718780110793937,0.010037115782448047,-0.01156168195014196,0.0021796190645133728,-0.01882809884239154,0.009848283364423605,0.018762685368351364,-0.0010152826307456518,-0.00023378207444428313,-0.008533805185593971,0.04597457033617527,0.04259140973345818,0.0357551638134395,0.039619877384784695
50800934.18168086,4.1791462327969615,0.016298374858988145,-0.025854808568078744,0.021469765282671645,0.004427745844312121,0.009013558486053543,-0.01255449430363164,0.0034982332586619806,-0.015784756941147286,0.009029054161753952,0.015710030776787235,-0.0022827559826959034,-9.85926716148031e-05,-0.0065729793436009295,0.04612697515923802,0.04324280389099611,0.03667749820509512,0.03941533948659549
51332849.97311403,4.277695886384069,0.1971670800948601,-0.020362131416325487,0.02092139977281389,0.00013557194339087084,0.008775083306793476,-0.014397445720762084,0.004927522114083262,-0.011357005924091694,0.006912118956942231,0.01165890904968113,-0.0027594130021720673,-0.0003717001267901167,-0.004082908953540066,0.04376886541570962,0.04158610354981556,0.036183308524214766,0.037705435438799395
51844852.272929795,3.5857789682245413,0.4058450136573809,-0.012445064012811686,0.018645253036996243,-0.0031874126655000333,0.0061036423559324,-0.013332632024484226,0.004216213309863222,-0.006627092965515344,0.005203480027606054,0.006440236676813109,-0.0035365389031667355,0.00011764382769863442,-0.001597728663376312,0.045165155025837775,0.041276235165481644,0.038151949379427376,0.038703560732536606
52365324.30433515,1.545455358578783,0.5931911653159946,-0.0016616127768542778,0.010154760326473484,-0.0021019983817547076,0.0036481749001531856,-0.008605246497008081,-0.0014340775710184126,-0.002174662654821763,0.0014155197981767175,0.0020050878673924725,-0.0004624388836912003,0.00013026029118065193,-0.000913766418285797,0.04321876472088378,0.03992500123853757,0.039082185762603736,0.03913375803495603
52880153.758719936,0.23703748112279632,-0.2156556896548459,0.007692871941567224,0.006079958746948258,-0.0030581924821458115,0.0028881125346588606,-0.003752078428567258,-0.009850672312470714,0.008344794444156669,0.006331293407682494,-0.0028487035536151274,0.0026931519300047164,-0.004005693296715938,-0.010514842931548156,0.04329923242388955,0.040248781188623,0.039306696529432875,0.04020154480602399
53397823.36336076,-0.10612549386442457,-0.9773776450566424,0.008316603608428723,0.008186660476140948,-0.0057643371958064574,0.004330480131360525,-0.00280898839743532,-0.01226041862268973,0.0038805230999529963,0.0034785641902098097,-0.0056165255378314224,0.004223903917713587,0.0018541359016198988,-0.007820601571697377,0.042952503221622695,0.04038380289465697,0.03893078223403921,0.03956360548191307
53918182.66835812,-0.7282907835756955,-0.921576860697797,3.105173472294861e-05,0.011235406879415764,-0.002988480571207304,0.007592238419678545,-0.0026023426573044887,-0.013267873805295538,-0.004850656471463339,0.0026056040528753977,-0.0011145045179971021,0.005713628094303976,0.0060337081887765496,-0.00838777934651173,0.04318205226912022,0.04093709312585713,0.039380292239030654,0.040093628647875135
54433124.206681535,-0.482018058382915,-0.7165484271337248,-0.005085347543560383,0.011378912186451555,0.0009573305473690758,0.007571355526676603,0.0005547797840699728,-0.015377030501007487,-0.00908863880104245,0.004916580283107026,0.0021876883305238207,0.006338889229571715,0.007020946131247647,-0.011375465173550538,0.045064035992555755,0.04130988579356307,0.03946008073117539,0.04082621362427686
54950749.17040762,0.43254068670089696,-0.8153641628911884,0.002414002761058679,0.007293976505822112,-0.000636561500636242,0.004136190523157443,0.0020567347781145174,-0.015264343067521212,-0.004534828444815168,0.0028357950511028345,-0.001878189187283916,0.005378455730189989,0.0065184014938702685,-0.008319634643027466,0.045989112994667125,0.042303878852432954,0.04105879657202034,0.04174988694281593
55468427.28895947,0.1597248627669883,-0.558646752277063,0.002588481808834402,0.005542966901990201,-0.0032219431736413336,0.0028434756329492506,0.0021420854372425106,-0.009895066607374544,-0.0018396676346925042,0.0020842793655841425,-0.0037035826117598307,0.003326337611612485,0.005602062271288643,-0.005469429001989187,0.04504468234537729,0.04130592925961115,0.04066713368718473,0.041047542479060124
55986046.84469415,-0.49199767424810537,-0.07669530790217113,-0.002514815157994903,0.0040475652152392886,-0.0037429120471050253,0.003420655531878755,0.00232646145396465,-0.0035369549959775133,-0.0018668836015504598,0.0020567615406406926,-0.0024262746959104195,0.002101334579013859,0.004318418035306121,-0.0041833558574068215,0.04064715095076702,0.03788451126520043,0.03759213775387116,0.037830394713712
56503666.35089818,-0.8193369072014437,0.4853422051827538,-0.009492082935390318,0.0017850781071079979,-0.0009814255429974768,0.0034432676778731195,0.0037405683120182156,0.001504594381387902,-0.003983684520388019,0.002783824912485721,0.001269711804325638,0.001187413230259034,0.0027453373702473493,-0.0040026027969987995,0.04151473958056967,0.037906493866045436,0.037359697121888545,0.03758353881341355
57021340.09112927,-1.2627804846180162,1.1504254594099692,-0.015671708755709737,-0.0011561884210744046,-0.0014860778291899718,0.003632676746853605,0.006644231198238611,0.008037067060891401,-0.004275236730809923,0.003215351559071416,0.0020227331037981572,0.00011587744461588701,0.002280845837702365,-0.0033595712144980547,0.043262115804432795,0.039140171010772294,0.03751510303234739,0.03773544431651275
57538912.39555083,-0.9660180576481697,1.3515084595865623,-0.014205654739511405,-0.004790258862539012,-0.0025564732498687282,0.0029972243955715522,0.008585019866877005,0.009970142589466966,-0.00207821920711699,0.0018714198731884812,0.0001714781855984195,0.0002627352400850508,0.00192909766907493,-0.0021565117608428144,0.04276967992146452,0.039118589538052154,0.03730110742965097,0.03737287145010388
58053856.38400359,-0.1878702007127379,1.3848260922583273,-0.010295021760005142,-0.008962115171516755,-0.002064953889312748,0.0012654126901971276,0.010443411807217645,0.009613266323423344,0.00017667335903745699,0.00022958941189751305,-0.0014303767321041758,0.0006233577237429242,0.001254920897530051,-0.0008541646600587253,0.04297932667609985,0.03943678225776227,0.037721020926160476,0.03774029674163505
58577028.43680167,0.36350784222103555,1.537095368428047,-0.010610366792850684,-0.012445545405784752,0.0007941890821554442,0.0011037984863681248,0.012343137884417543,0.008814786745691625,-0.00039435788030828614,-0.0005644078765677693,-3.831297452221236e-05,0.0019436747616340087,0.0004581274953359044,-0.0014047235256278658,0.04312869029451349,0.03929318830825061,0.037099589852076946,0.03712883309600793
59097823.992297895,0.952816112313981,1.4210605533864722,-0.007038437800325452,-0.015316393721319843,0.00273000518541983,0.0004562984459020894,0.01162315449238171,0.007545373397936919,0.0009046950762306154,-0.002511667724411043,0.0002952036130532102,0.002894333150137323,-0.001184695541658694,-0.0003978685732723876,0.042462292357248375,0.038640829641845224,0.03648300414985103,0.036563845450356035
59609513.668838784,1.5073344968898232,0.6547104123230352,0.0032831232778784843,-0.014047310994389555,0.0026645569779128178,-0.0014255319574672254,0.006025106644664999,0.0035000560513949856,0.0043325646053268005,-0.0049899126919000615,-0.0013358849719263797,0.0025779530075476904,-0.0030300109936256623,0.002445291044418872,0.039786371169212104,0.03624228054121082,0.03499306414322479,0.035314256659559694
60135914.00084993,1.5231166773533773,-0.4398142613278855,0.01389316622886109,-0.007482620174383005,0.0006096736326338497,-0.0025637629349826827,-0.002108118587992769,-0.0023483381641318363,0.006988593495465673,-0.00607914820435283,-0.003534406730787715,0.001585977898254487,-0.003510838682143256,0.004549822223528097,0.03782014636975047,0.03493273402835708,0.033631617362707734,0.034287568073731685
60650717.26897944,0.8981701433172666,-1.1044221215101888,0.016332402419594574,0.0006733929188927656,0.00023969078014954715,-0.0038123358887069986,-0.009043064425022866,-0.004390085804908024,0.006151064400421443,-0.004446768962481775,-0.002282150047489187,-0.0012814914968701956,-0.003928337211424923,0.005787683317848039,0.038099657362791875,0.035532950942263386,0.0336726916977676,0.03422330949691719
61171191.154303685,-0.05117126700792255,-1.2028621123374073,0.010466851738682949,0.0060428262976982595,0.0028948785284969246,-0.001704613446923381,-0.01349168783311071,-0.004208255284844399,0.0018970550277941282,-0.002572730708058945,0.0029172568385457632,-0.0017204488947797098,-0.004882892852206976,0.004361760588739601,0.038673276284750605,0.03640849485350213,0.034716075264505916,0.035017027570563006
61691616.30232401,0.27894239958771555,-0.769962657108702,0.004023554334435363,0.0018187960689140016,0.00957664663316804,0.000467299191617719,-0.011131873524307547,-0.004754422703828563,-0.002220716782539619,-0.002775037025580947,0.008748293132198822,0.0012995103181070123,-0.00654420198766459,0.0014921523454971023,0.03783401898952282,0.03561716168470941,0.034388882525741404,0.0350375033248171
62206489.56102002,0.8345606651230915,-0.1592855930263231,0.003304907318439693,-0.005724025090588667,0.008251519349459818,0.00028419681476586097,-0.0047771772423081706,-0.0013394211497638855,0.00012013895365838842,-0.004382375113615025,0.005980101831105885,0.0025558274292633203,-0.006124240764048766,0.0018505476636681683,0.03812236042775341,0.035791946562360843,0.03514921564472098,0.03563110186638813
62726935.71415968,0.837568487886201,0.5062468842135731,0.0005414734238656279,-0.009920451856597064,0.004719721441742877,-0.0012810969871684575,0.0012789273038406584,0.004661426674309804,0.002158771369809461,-0.0038892935801845825,0.0025131897067230077,0.0009274083674754635,-0.004756156670927578,0.0030460808072156295,0.03896888057070295,0.036242815132130506,0.03556357898070358,0.03583500405675551
63244651.805567905,1.6531780022535638,0.3849336834296315,0.0055557337894544395,-0.0124954327285123,0.003820712174227901,-0.0026703620957013357,0.0037903930159726533,0.0019989558445621287,0.004304388271899575,-0.004911382587250877,-0.000593420070314653,0.0017490563756791854,-0.003799832076348033,0.003251190086449415,0.038213969594171046,0.03609437045060143,0.03502292164165832,0.03535826777228152
63762270.86072391,2.1001704587012116,0.3001343264590127,0.006246519337609183,-0.014067370869473699,0.006196739964849218,-0.0013242533914957007,0.0044049874245168305,-0.001456622466001293,0.003293908874611669,-0.005760381223145733,0.0005686103814274542,0.004307352886221991,-0.003908080110422735,0.0014985891914535304,0.03787431326327315,0.03565360095633906,0.03422042976697598,0.03460895293258811
64282749.07108144,1.5332609545697442,1.0342238039793787,-0.0030042756065468356,-0.017454543273676213,0.008091033782455563,0.0017705639682497078,0.006951796127957265,0.003645425001568519,0.0007366441780545007,-0.005659870763512144,0.004060532537846292,0.00580422719929321,-0.004852833455999102,-8.869969575337299e-05,0.03808267983151467,0.03596448558322636,0.033831499830145065,0.03434991648589786
64797573.462720945,0.15481381970368122,1.8202465035399276,-0.00988086309591892,-0.01865766241695754,0.0017628623630840015,0.003173652987684334,0.008749721313797894,0.014852288848300196,0.0029045007992228845,-0.005401507443282464,0.0015236044996412704,0.0034101919489127634,-0.004510226033291228,0.0020734362287846437,0.04090845786863131,0.038521521543085135,0.035089263274932406,0.035445949952709895
65318011.709240034,-1.4861146521618016,2.6173726672026376,-0.019366209935446577,-0.019462980934994326,-0.0021328464593679325,0.00660624421794652,0.008619955538619247,0.02573583757324537,0.0031856248605308985,-0.00546107963024324,0.00213045563004508,0.0023322794384303663,-0.005371672260680591,0.0031843919618124773,0.04536839960703912,0.04336897472482462,0.03692351042325142,0.037317822931942544
65838525.76059547,-1.3622182367814955,1.9478983109066963,-0.010276297989382675,-0.01594224948489763,-0.006755522386968457,0.004893824110519658,0.005318054868672591,0.022762190882059722,0.007138511333395913,-0.006272759049420308,-0.0028914333493747038,0.0010253873725895638,-0.004347920117393106,0.0053482138102106174,0.043083923299400875,0.04100514887279583,0.03681814200168734,0.03748146634339877
66353348.03755402,-0.5007714582890825,1.068354373799488,0.0027098740477486507,-0.01415535922094043,-0.009624701457175864,0.0022695798134533102,0.002427663342628445,0.016372943474285105,0.011661500216997177,-0.008120898556709697,-0.008170199811010238,0.0008147467236923572,-0.0036105277250807997,0.007425379151681245,0.03813271702933362,0.036078574735534816,0.03330272138883333,0.0349570441715137
66873793.03569472,-0.5568248576169539,1.1740137713652736,-0.003517144321339173,-0.013966558015881828,-0.0029624001249547952,0.004853230116661439,0.0015658400796725945,0.01402703226584516,0.00633193882155006,-0.007356400061448177,-0.0013419571929669972,0.0032377667001149443,-0.005050584288417864,0.004179236021548114,0.03714746876710717,0.03560672302082508,0.033494682360839335,0.034232263455707
67394269.38688977,-2.0363443702684436,1.6854188176470535,-0.01745189708139871,-0.011353682640047446,0.0019448558940200616,0.009679401688608542,-0.0015557230339516127,0.018737045172773362,-0.00030877393469741054,-0.005515876322711735,0.007619979115843764,0.004019738606252412,-0.007392693975268209,0.001577626510446374,0.038920648085612526,0.037555065553097206,0.033387585862812125,0.034191715425928394
67909090.80808389,-3.822267224748446,1.7455375839473062,-0.023545048914639474,-0.005606916072163838,-0.000725581353603272,0.013182627622978662,-0.007259715057588845,0.023954633775000456,-0.001621614924992804,-0.004605546850526177,0.009782999677583419,0.0026885656392606695,-0.008237494586891249,0.0019930910451717515,0.044769338622314775,0.042207175656096434,0.036301221791188595,0.03720450506078218
68429571.84740816,-4.785898390232614,1.8188688667145365,-0.025067382401468795,-0.002874333450059675,-0.004223945814983096,0.013079249200639811,-0.010118198411085272,0.029204610876956364,-0.0002600612271538309,-0.004192238519972119,0.00888481425310895,-1.4961283237719138e-05,-0.008767244693203871,0.004349691470455194,0.04932448234101266,0.04529680251940496,0.03813978261823157,0.03897644749990889
68947257.80739018,-5.163930926476092,1.8005124951586855,-0.022511867424100215,-0.0014153222883632843,-0.010546681307466086,0.012131114708881672,-0.00943374047247764,0.03177649678352523,0.0031159184588658633,-0.004012384640042319,0.0035584223669527515,-0.0019771192590592114,-0.0068008332454989225,0.006115996318867751,0.050555089381838,0.04668782410737427,0.03947934740380912,0.04001994687535578
69464871.55409004,-5.676481893469074,2.159314854819191,-0.02647068103456321,-0.0019259526416547494,-0.012439737876744029,0.013099415515094637,-0.00791505922468931,0.035652015262523144,0.00301896007667587,-0.0035648125996039022,0.0030788332293551148,-0.0024217716414893613,-0.006234707213413644,0.00612349814855264,0.05078660082562621,0.048993072741490507,0.04013791528905508,0.04064830298285235
69985356.12382396,-5.4881586388015515,2.8777039716830934,-0.03406274436625334,-0.008326137350328392,-0.0076964322877297,0.015820538427909824,-0.0036888913228785448,0.03795366689926318,0.00013791464593953726,-0.004341721522534151,0.007416960278339594,0.0007191078055695907,-0.007638433416573316,0.0037061722089453734,0.0546488475318821,0.05264207598663495,0.04208302592022918,0.0426914451886624
70500173.20919234,-4.456010734060592,3.354054198355842,-0.034178210144694125,-0.015969271010745575,-0.006428542009759533,0.01553487953468255,0.0034168549096156996,0.03762428872090236,0.0009486745700593818,-0.005564237628281954,0.0059623727354222045,0.003205731224382338,-0.007007462905293224,0.0024549220038121967,0.056872733822819696,0.054702944882346435,0.04406731422162124,0.04456092103524506
71023483.58163169,-4.1113058609453725,3.5845765419310958,-0.03335163399170768,-0.019069407789125584,-0.008255411820483081,0.015033568440648544,0.007178846506069464,0.03846403865457663,0.0026049566890783567,-0.006015673533033047,0.003219861602065275,0.00361693380434482,-0.005903379777597552,0.0024773012153442913,0.05903057076899082,0.05606101217742041,0.04513553840439469,0.04549846564430043
71541162.82445423,-5.533554959182025,4.030522607013306,-0.04161628545857708,-0.017698446306795203,-0.010273538198100422,0.019629744367829938,0.005835937683075772,0.04412258791257338,0.0010069654641221175,-0.0056884528933224595,0.005087583770437795,0.004304715626067692,-0.006168706528516833,0.0014578945614181391,0.0651286059396965,0.061419937776398335,0.04759452041715288,0.04799051918833144
72055994.27856866,-6.701840038857853,4.186195979909356,-0.04594738961608421,-0.01431921147077089,-0.013024043520928208,0.021049702959579388,0.0034608293917049076,0.04878011225652832,0.0006450991622529096,-0.00463849710592,0.00549549465518332,0.002548001793134384,-0.006186346216039628,0.002136247711138454,0.0717596274269587,0.06732056905323432,0.052369383488071714,0.05267061662012984
72576432.33023119,-6.551489957401433,4.014404330568576,-0.04406983657362051,-0.012310947554078912,-0.01344403186984492,0.018294842577346176,0.0032510435023365165,0.04827892991784824,0.0009292051848009322,-0.003398651214001346,0.004629692583674633,0.0002238324727148588,-0.005636897894775429,0.003252818867529073,0.07176689861095865,0.06666515422863353,0.05272574312348066,0.05297068191090309
73096893.43816501,-6.084833720109816,3.545010177249297,-0.038101890359798704,-0.009461710248046724,-0.015369481875634132,0.015484716228331958,0.0031282216047863517,0.04432014465038123,0.0023779872426821676,-0.002471373575366019,0.0013883344151687264,-0.0012840472339370756,-0.0038398712471287753,0.003828970398512625,0.06720842475238493,0.06348743687712513,0.0520060354691857,0.05214493681899898
73611770.27263576,-4.776871243896606,2.976196267665706,-0.027953871321219445,-0.010492437004089325,-0.01616159250303557,0.012901822703984002,0.00457112599473758,0.03713495212963355,0.005226815590840689,-0.003641313915810739,-0.002987954576311454,-0.00027961879945980216,-0.0022679201906625176,0.003949991891296224,0.06439810881170911,0.059545375785727626,0.05136235288472787,0.05158714000997741
74132193.34069762,-2.8299748533516804,2.7338875401903326,-0.01753856124417931,-0.01211619049008229,-0.011675627801480834,0.010387226777946477,0.004552276602402569,0.02639087615536535,0.005754079310422724,-0.002669747345571467,-0.004868630697042247,0.0034918111468784647,-0.004897588375150114,0.0031900759605339923,0.06586424637094454,0.05804625619122912,0.05382209665328203,0.05264991899454695
74649814.3190225,-0.14887132323010804,3.300114600395685,0.006429909369304908,0.007023334811504309,-0.011783679480133452,0.009124137962886397,-0.010986258744372493,0.00019255608081813065,0.006840511711079843,0.00737249963144697,-0.011880210027938331,0.008941754352285962,-0.011141877438806003,-0.00013267822822150575,0.06494466393991252,0.05863018571287373,0.05736248930382909,0.05193984391511973
75167492.65865526,2.9316017049378438,3.8155354839531657,0.019132999540510013,0.033650999349964246,-0.011267450742000846,0.010480423579707219,-0.031189444044653507,-0.020807527683546705,0.0018421985886437479,0.003399478674000221,-0.004903728044180963,0.004026085558877899,-0.001011122581484946,-0.003352912195666684,0.06325707011346177,0.05888970769778449,0.04909933510973525,0.04796481613889965
75687862.81588136,3.396397412356213,3.583998919199962,0.010323479715670809,0.03867768707361992,-0.004696867368894024,0.012367183775151905,-0.032176190323720155,-0.024495292871829045,-0.0072871996523322805,0.0034297495800472994,0.004104017790362149,0.003545579341175918,0.003083457758187185,-0.006875604817331668,0.0708082989642577,0.05805421033130167,0.04719666251226445,0.047693247332279996
76202755.96472698,1.6624169484090436,3.630803457389013,0.016433156316738057,0.032434719004538363,-0.001856930342556621,0.009306244766145638,-0.027114124711181832,-0.029203065033708557,-0.005753011149421553,0.001982548737025316,0.0022700466320878998,0.005165633623991576,0.003353499111087394,-0.007018716954694022,0.07121674534766727,0.05701976332203958,0.0473761314334402,0.04781536395079056
76723179.10928968,-0.30211471266358964,3.8404820258706938,0.030981091998493835,0.024223773300865392,-0.004986183816047707,0.003906009656980633,-0.022487291318760032,-0.0316373998215298,0.00247168726387983,-0.0018931800677625611,-0.006166829990995666,0.005078489237876421,0.0036598981811680337,-0.0031500646241281694,0.06028264599427719,0.054286157141028475,0.04371873279844522,0.04408204611733344
77243558.08582714,-1.41353720891873,3.862720931124456,0.04092690600889548,0.017488144364940485,-0.008165441286546223,0.00020961498868732472,-0.020123859078811836,-0.03033536499714686,0.009526022197560524,-0.005496357148042171,-0.012335742337974714,0.004377359146347264,0.002903823748212507,0.001024894393740934,0.058212322777315195,0.05469048247908236,0.04319490368067554,0.04434545420621428
77761207.81218153,-1.678956373836211,3.82329196761372,0.043709084650977226,0.015183029613257515,-0.00977410822967001,-0.0006022241152297626,-0.019153663080165424,-0.029362118839172138,0.011940371872823565,-0.006735109845253655,-0.014653506293438166,0.00427361360407293,0.0028126340976058917,0.00236199656464891,0.06163749978525802,0.05729182738515206,0.0460610065523342,0.04761468977054681
78278858.20080154,-1.488340681863259,3.694670080890238,0.04211875275747046,0.015455189482916173,-0.010509638955615649,-0.0005206914720170605,-0.018352552648237885,-0.028191059164520107,0.011742006230751426,-0.006123783169981981,-0.01487572497965401,0.003862724787004446,0.0032603443721444603,0.002134432759588521,0.061832548610976555,0.05689269064986917,0.04635798085236844,0.04788011640310596
78793832.35631499,-0.17255590996090622,3.2558120486799482,0.027130585045676805,0.020630946264543662,-0.005525913751650956,0.0028138358947536746,-0.01931723714918532,-0.025732216304132652,0.003166053013732422,-0.0017501561454267597,-0.0063069881775406995,0.0035812496904054493,0.0030917830414447416,-0.0017819414226305753,0.05647223723342096,0.052041412747267,0.044179157688859355,0.04447532359742171
79314159.08994354,2.062299962493423,2.6620598272202254,0.005338292679974768,0.02915161708706057,0.0010821311721465876,0.007915519849956955,-0.022472576328138493,-0.021014984460997675,-0.008868749418915266,0.004335477761214267,0.0063860039016634396,0.0026070083295410616,0.002348498521820992,-0.0068082390953249595,0.0577621101242853,0.050504462020984096,0.0436502162101801,0.04439164329013097
79834612.97021781,3.658812476502524,2.1723789465561136,-0.005800543272436728,0.033593835632403805,0.0012010416796469753,0.008997924828114049,-0.02452049631716443,-0.013471762550568558,-0.012574629505674187,0.007504193937754249,0.010868319798818048,-0.0006602432013281145,0.001566292376024732,-0.0067039334055572644,0.05972415561522568,0.05243530431740105,0.04552437066921103,0.046895660642487465
80352166.05401713,3.6003212120655665,1.0023619469313196,-0.011332899949581515,0.02488264012059263,-0.001274999146832103,0.006644416464040659,-0.01644164820814858,-0.0024775092800659454,-0.009788477694329709,0.007195548044432957,0.008348890197552361,-0.0029699257305343197,0.001243296286644324,-0.004029331103806829,0.05543803764662613,0.04892771183632741,0.045147184073533415,0.04604526723806408
80869925.54667914,3.4291682831739587,0.31253846601397123,-0.014622937310632494,0.01897145383480427,-0.0008329560404397753,0.004782923932117131,-0.012365690150774994,0.00406720573492597,-0.008512091792149696,0.006647442051781126,0.008390444312852385,-0.004436662268880525,-4.276925730726308e-05,-0.00204636304631351,0.045853390066513476,0.04163314673968835,0.038449271337719824,0.039356190609600814
81390360.27115108,3.3747809987775157,0.2947878765789903,-0.014158842974328591,0.018465100035397586,0.0001800413658642546,0.0032181034985434014,-0.013336571909947567,0.005632169984465134,-0.008055389750675077,0.006432943265515081,0.009254908954643249,-0.005860797619768703,-0.0013008612514034024,-0.0004708035977955142,0.04558822096334261,0.041619119320487515,0.03846366241641768,0.03944044586987176
81905223.59113483,2.4886998613109017,-0.17635633704249012,-0.014859995535136325,0.009145287743894101,0.005844822717496795,0.0031070120532906594,-0.011182482931358909,0.007945355951821864,-0.007515694682202752,0.0030441227796508138,0.012579652667174163,-0.0036273414736780977,-0.005077751990372618,0.0005970126999439005,0.04874392454294656,0.042177631970142314,0.03999567782460417,0.041079861207238076
82425695.59198296,0.9491702120203923,-0.24937688149902484,-0.006429914569611619,-2.059888820065828e-07,0.0065488288436281634,1.214824309737029e-05,-0.007825659415424473,0.007694802887190993,-0.002310342770606755,-0.0010473316875290037,0.009135430907835088,-0.0025731639425710493,-0.006779472287192418,0.003574879780099007,0.048413499118772116,0.0420167712640791,0.04119094281328744,0.04181894144362138
82946139.80148973,0.27219417062906737,-0.008772680252243295,0.0014302287179459433,-0.0030626942435709043,0.004060915559359845,-0.0008999273040242531,-0.007578029820925823,0.006049507091216798,0.002158541412104204,-0.0038044681064350397,0.00479611143898695,-0.0016350579643723516,-0.006837000742338489,0.005321873962081295,0.046547467378032316,0.04064826992996659,0.04013740273351152,0.0406349252138191
83460961.73555768,0.42275476109764626,-0.22328877601161054,0.00014372425143890406,-0.004436623612876097,0.002274689615117098,0.00020760218876207396,-0.005821850052490355,0.007632457610043494,0.0027909131595846583,-0.0041133560566121025,0.0034370388510924876,-0.0009549591542618189,-0.006146073376869561,0.004986436577156925,0.04919602379120209,0.041934378322771367,0.04146423971045925,0.041866833856462955
83981440.23126559,0.6719176711326487,-0.34802744854756246,0.00011289802130212467,-0.00461560692167269,0.00045427168342493883,-0.0008406257516602855,-0.006018678291658635,0.010907741260265768,0.0042679458660125,-0.004153417122903692,0.0022989594316987286,-0.0026735424735687017,-0.006488740745602491,0.006748795044432504,0.051736585869154826,0.044773371447282495,0.04410376215025203,0.04461654040686645
84499088.36151725,0.6083978407248036,-0.04703871517646118,0.0031338341498027313,-0.00222779684162824,-0.0006598552947034345,-0.001953801251058379,-0.0073603227332881445,0.009067941970874658,0.004957607110522119,-0.003695484693411807,0.000983764932867215,-0.0035872151021216266,-0.005899446299517358,0.007240774051578342,0.047535459816562674,0.042282393299194344,0.04166137259524966,0.042217645055931875
85019604.50511283,0.5145828040520658,-0.31799595318852747,0.001004053595165695,-0.004633675054936484,0.0005313525848571072,-0.0018788012259771472,-0.005709028714642203,0.010686098815537224,0.004560167063516973,-0.003916170205897197,0.0019523387631628487,-0.003298215877867306,-0.0064289407986366075,0.007130821055780789,0.04304787306984846,0.039142424029448376,0.03839532513519271,0.0390125583696461
85537272.84249955,0.20100220729900406,-1.3480558632943491,-0.006652834793522584,-0.013755314990797131,0.003496856208774457,-0.0011125638216667756,0.001205792845105741,0.016818064552110053,0.0035847433782222474,-0.004869669035638673,0.004177872766243276,-0.0017868228567109378,-0.007683922437764168,0.006577798185923388,0.05084199093802496,0.04464181325390328,0.042614803384022945,0.04323670228494407
86052073.5498997,-0.29591253888263946,-1.9971709529719774,-0.008777298556481773,-0.02018651695249942,0.0031567555668934916,-0.0026743022913698956,0.007504257889040504,0.020977104344420412,0.004938801551922137,-0.005269569766435277,0.0025630903548821793,-0.0020694224250146455,-0.007418551389895169,0.007255651674320044,0.05290509835834736,0.046910007264054,0.04322720696339278,0.043874794935631754
86572571.6584641,-0.6931635020794564,-1.864219648394094,-0.004967010723964964,-0.020075262743080306,0.0007247590764984464,-0.004725860876681867,0.00942542410015794,0.019617951167073638,0.0068061368666029135,-0.004921126897906699,-0.000955011465806617,-0.003024451502065409,-0.005737870831479278,0.007832323830663441,0.04813894286048422,0.04449612351381454,0.040896932167145315,0.04160745092607295
87093033.66715798,-0.23197912422937914,-1.6725598106053101,-0.006020172524947455,-0.01747820396689469,0.001058170710391076,-0.002320417431410853,0.006414480549264455,0.018346142663592507,0.00549857017057878,-0.0050333867573480635,0.0006013099667360453,-0.0018482916197141794,-0.006037927018332309,0.006819725258203915,0.04458907349811735,0.04163072952735631,0.0386157845951951,0.03923387485373117
87607849.4232133,0.7254956711386626,-1.3655801857882741,-0.009122755793575228,-0.01042594944043097,0.0009672029190822968,-0.0002531979004270855,0.0019255869673577154,0.016909113247993778,0.0025211988426314088,-0.0029600787239549044,0.003059955485916979,-0.0023451051167092288,-0.005538992386967586,0.00526302189908877,0.040655005465282834,0.03841300409062232,0.03625610681795552,0.036666346020283326
88128298.07742628,1.320362241630971,-1.1597422943576676,-0.010050846711892254,-0.006155116490902562,0.00015768495513583108,0.00043687216049622285,-0.0010881315181342141,0.01669953760530147,0.0015560513477800182,-0.0018896948983817053,0.0038340055840088306,-0.00324178285581164,-0.005349768180142278,0.005091189002650617,0.04128318065786408,0.03798023177383424,0.036087022137874306,0.036484018509543116
88648778.10604008,1.4217220062897276,-0.6436620118306708,-0.002752487790583168,-0.00399452209400947,-0.0041308580854689855,0.0006079525032426438,-0.0047348506023679095,0.015004766069184536,0.005375456713776426,-0.0036624877573775373,-0.00023487776148681987,-0.0032906358623539015,-0.00506816929888418,0.006880713966506576,0.04095188484593276,0.03780824807364325,0.03650852691380194,0.037082037558875215
89163597.82589759,0.6908234010878959,0.041757983814194086,0.009109727179130792,-0.005063630196018474,-0.0068988018625985685,0.0005469183490595602,-0.007682513852428644,0.00998830038285597,0.010497565036252566,-0.007398448528702412,-0.005041008605743283,-0.0013117652100164926,-0.005350281300553838,0.008603938608898245,0.03914124221125631,0.03604542131166515,0.034554935577581866,0.03594479909846215
89684079.26128158,-0.30146962272802064,0.5969885997820975,0.017653540528274243,-0.006649901256399033,-0.005373992483767586,-0.00015483446165126725,-0.009549603654427698,0.0040747913279668415,0.012597520174578804,-0.00995647782421169,-0.006244370989703469,0.0007149244465445075,-0.00623839387278801,0.009126798065662564,0.03995605930945191,0.036653468585678445,0.03433611171122869,0.036311028717052
90201723.75187655,-0.08833313632695795,1.4698997904886604,0.023138776092250134,0.0011151261032480541,-0.006195385140318637,-0.0007805254063748746,-0.015640170232686226,-0.001637821416122279,0.012290152817933185,-0.008961761989706132,-0.006575666428991893,-0.00040145483589002726,-0.005556531240137558,0.009205261676790331,0.0450628020135966,0.04145602832006877,0.03795655006276962,0.03963260666179637
90719417.7106611,0.7858875816098818,2.075832190997319,0.02377496471641813,0.00934654686859282,-0.007754213561377099,0.0012545032817186177,-0.021622063839312037,-0.00499973746603911,0.010682283586410211,-0.0075753371912612175,-0.005838632910637855,-0.0006645799104524119,-0.004696134232015515,0.008092400658034342,0.048189024999195695,0.044014350748032505,0.03910515715937207,0.040332155208186
91239918.5623156,2.688053374255231,1.891861711348951,0.013580944981636678,0.017336965813567938,-0.008995649215343304,0.0036988097873470625,-0.025758310087048427,0.00013723871985617839,0.006468539890800096,-0.003908837055613843,-0.0019373358830350623,-0.0033654436768989523,-0.004515762434911562,0.007258839159576215,0.04745050295580236,0.043302735094789234,0.03812300736796772,0.03875469040406479
91754675.5022378,4.631682988507745,1.3278036400746753,-0.002914464390036813,0.024121759681849538,-0.00717601347736026,0.007332417109094689,-0.026938098625956274,0.005574399702403214,-0.0012030807136959411,0.0011155209123503227,0.005177830718008488,-0.005031191509161485,-0.003926680018258645,0.003867600610778517,0.04668016131232684,0.04196494465024823,0.03568940655787061,0.03608692266923539
92275164.69391541,4.186421426255761,0.7610796757371602,-0.009403538044032525,0.018489837262759455,-0.0018366314173227868,0.00945640044125781,-0.02240162009753635,0.005695551854897702,-0.0046545781352588566,0.000791918088062804,0.009386928609313616,-0.001766291891905701,-0.004696259944161324,0.0009382832739986577,0.046000720337142254,0.03941412418778292,0.034608309536948274,0.03526224117001265
92795643.06097952,3.001220756350947,0.5525852487354252,-0.0067819897833459875,0.011733645862283607,-0.000564838533301916,0.009403902818003797,-0.016784002968775403,0.002993282605128452,-0.0034285783247300777,-0.0010082236872381773,0.0074839051558763916,0.001359968225511224,-0.004040466911948808,-0.00036660445756826754,0.04349780207346417,0.03737525597164313,0.03475305943489572,0.03517409995426627
93310500.92456192,3.073154238771082,0.5249608892782727,-0.008441085306440473,0.013365468434144758,-0.0005083128418662642,0.008811325741288989,-0.015753487175243323,0.0025260911481241794,-0.0047418587409078245,0.0005965717649604457,0.007733832152513357,0.0005732267074467202,-0.0029823627395640295,-0.0011794091445065545,0.043146834758397395,0.03783704341269911,0.03516372490753672,0.03560670272443466
93830943.03475514,3.978136092048296,0.8307275291059317,-0.011507057736792012,0.02109437796601824,-0.0006869608471289812,0.009312787033272494,-0.019803570809570962,0.0015904243941977883,-0.007815204608743973,0.0035078283202855626,0.009964907930305071,-0.0013382480683438072,-0.0022086311561374293,-0.0021106524175266506,0.043822096575334535,0.03981835066822896,0.035099784131972914,0.035965475720764
94345824.78617994,4.951288955360988,1.3123415182880473,-0.01101001343740085,0.02928690399281366,-0.003214031541383561,0.009146905055929631,-0.025505385314435185,0.0012956212444904574,-0.00842260201434231,0.005448681320412642,0.010005224524421796,-0.0040833626395360405,-0.0016526469598749614,-0.0012952942310188197,0.046225187341622086,0.04229353975619535,0.03483406309960574,0.03587640273697552
94874891.15321735,3.982931421920606,1.853303705052115,0.0015919332676994147,0.02684596786128685,-0.007283443504478542,0.007358101237853758,-0.02601052495265641,-0.0025020339097048725,-0.002081204948433128,0.0020525102073608186,0.003268948967659216,-0.0032047054009846925,-0.0012148159399953825,0.0011792671144350009,0.04734463871800537,0.04250689539844405,0.03607663311129883,0.03622681963602881
95389776.04190305,2.85562856862069,1.8281196112975526,0.006329785914127427,0.019239253738067626,-0.002992939897798859,0.005870051337109932,-0.021267570465267612,-0.007178580626248096,0.0006857836074898068,-0.00022515980499177095,0.0038467812857370352,-0.0010048300946831207,-0.0018196317198520444,-0.0014829432736395735,0.04585108815332208,0.041067278431074494,0.03694688822088668,0.03631501874819925
95910181.06667364,4.475983034139217,1.2541938410958517,0.006272580671525036,0.0011512084018849504,0.006814045191768418,-0.0014342153279693329,-0.0006197517612021126,-0.012183867176005364,0.006376424115030185,-0.0008385215162800726,0.00790263903824839,-0.0026352949807954807,0.0015946508763293394,-0.012399897532511027,0.04996875023199189,0.044957577489397764,0.04405344935001088,0.04000131172358375
96425018.30571476,5.21033853671939,0.6520653381997253,0.010199758910668577,-0.014769296265389455,0.008116192261240331,-0.009821924854015403,0.01815977502799024,-0.011884505080498474,0.0038842324047259234,0.0009492835399240961,-0.002829873596492947,0.0011102455063273205,0.002466837347058517,-0.005580725201472648,0.05188383598377509,0.04622813940480835,0.04261814322857942,0.04117489671009167
96945481.49007358,2.554041310090787,1.0115715424502103,-0.002399478701419025,-0.012451978384733204,0.004848900922524512,-0.0065319102551224095,0.01790288817128068,-0.0013684217525401449,-0.0013224928283727024,0.0021902419241234808,-0.001932553541516116,0.00026107931644090944,0.003244317875153817,-0.002440592745757395,0.05002795253829958,0.04309852715561273,0.04091278259992253,0.04101511777778908
97463054.43533593,0.2906443427303682,2.1277887249449883,-0.022774616328610543,-0.010356343803958168,0.006904918896168776,-0.0015478306044567852,0.017622636159578313,0.010151235681268418,-0.00811046121156392,0.005479623035746274,0.006331369745525513,-0.000971684323592338,0.0017918271284311778,-0.004520674374129809,0.047622681109019634,0.042241797182637084,0.03766191281853787,0.03836537465951879
97977993.40450117,-0.032736036462878995,2.89923239188254,-0.03135003065038037,-0.014157308277803787,0.009174944302161574,-0.0007830211970521665,0.021080236457622404,0.01603517936545937,-0.010326408426550098,0.006155842242373172,0.009549928358559848,-0.0011566041812962882,0.0007801069932068889,-0.005002864986193372,0.04892819848866173,0.04563143151003604,0.03771447488398088,0.03886182831587475
98498352.29277185,0.7701419446710518,3.167853293843755,-0.03207682135336215,-0.0185287587744171,0.012953510980280376,-0.0028464264697393915,0.024453188494410204,0.016045307122827496,-0.011066178188616785,0.006038762190433147,0.011189950781618871,-0.0010817334995039285,-0.00010753873406585492,-0.0049732625501176615,0.05113495013760159,0.048348702910528944,0.03912864542873562,0.04043484265518012
99013293.18793884,1.7731326564165628,3.101097670554552,-0.02837332780808353,-0.020967255118286357,0.014748756711891782,-0.0062838985957965245,0.02709420461546408,0.013781520194820058,-0.010286753136834517,0.006085127678544443,0.010275082883505728,-0.0018058164434066606,3.96657202565164e-05,-0.004307306702325547,0.05366109643311978,0.050638388809812286,0.04184784439782456,0.042918248655176496
99530917.05143541,1.5320719493578925,3.6518818103608512,-0.029063015608337826,-0.025624448719604224,0.009721513112472028,-0.006075594566706199,0.030704247640540274,0.02033729814165573,-0.006409976860156752,0.004594834370433404,0.00594999332803641,-0.0022999448464450724,0.00048728078292517997,-0.0023221867748256957,0.059209593199085885,0.054690877540391834,0.04455845248482282,0.044963383998801794
100048566.00099742,1.801164531980897,4.4199201994491615,-0.026032852418529005,-0.03669254153164185,0.002489185884934425,-0.005052012276542982,0.03680671067777854,0.02848150966399984,0.0015225110232430763,-0.00028089588522808476,-0.0019424814628978796,-0.0006178390827960756,0.000386938007474434,0.0009317674002037391,0.06352588821751219,0.05969160438797668,0.04632968252313203,0.04636546295402928
100566210.12190951,2.7490355880698925,4.984158130477485,-0.027634943730191777,-0.04495367952505481,0.004937282087373831,-0.004802546100228789,0.043474469701369416,0.028979417566751285,0.001694969372768689,-0.0017849096206699051,-0.002001643617270793,0.002135738447214032,0.0002847479690143817,-0.00032890255100111654,0.06758929347057024,0.064320803327123,0.04769492753921313,0.04774714419721527
101081103.32892048,1.6961633246259031,5.367368451288912,-0.0413312238791869,-0.0404530750623192,0.011334389086559689,-0.0025287949592254356,0.04217056594633767,0.030808138867823572,-0.00667175345226553,0.0023119136139354065,0.00727735731782937,0.001521977054271174,-0.000598968496016759,-0.003840526037608167,0.07189530424857274,0.06652060837470397,0.04841359215367087,0.04882235641567914
101601508.89415604,0.15257061309568187,4.936347943478561,-0.0455062160071509,-0.030706171396028804,0.013091226593023891,-0.0014916750335706853,0.03221940984821573,0.03239342599552427,-0.010210701225354448,0.004485615110731229,0.013169276272812348,-0.001573970153123259,-0.0029487010188010998,-0.0029215189861999825,0.06905790668623782,0.06374660889424408,0.04759783814671983,0.048705527446749386
102119131.67197773,-0.2716093750224142,4.547628857177781,-0.04096386582267902,-0.028125140718477538,0.01156438557426524,-0.002789367786040452,0.02586608364332106,0.03444790510962082,-0.007444577080939053,0.003085445685251134,0.012753165403583528,-0.003980828606557675,-0.005311398455644686,0.0008981930545225959,0.06483551348629008,0.060345671727589915,0.04622623300446758,0.0471993036750511
102645461.81403285,-0.23613093445640987,4.324521288663008,-0.03902748794222293,-0.026295597292136732,0.011721995351262877,-0.00411083660387184,0.024125483198328586,0.03358644328861693,-0.007205805005973002,0.0034509027240560517,0.01279305279861656,-0.005185092447086282,-0.00558676414164852,0.0017337060718673675,0.061514041540141284,0.05771840917405296,0.0443411184194011,0.04540411119613599
103154381.51794156,0.31720729462103137,3.9122607873761557,-0.03521733384385858,-0.024928906739238046,0.013941115656429755,-0.005457598586234437,0.022691077094892372,0.028971646418010654,-0.0077211311089087666,0.00354564713997255,0.013476985863312202,-0.004998193610545092,-0.005755477642509265,0.0014521693584168065,0.05928964761058444,0.05591445661070513,0.044382198076358056,0.0455405238064846
103680763.34926447,1.641473237916175,3.5186855145711253,-0.028865895924540863,-0.027385553123855825,0.018249145737405336,-0.00767845095857802,0.022870926154687596,0.022809828114893942,-0.0074329221781214766,0.002216872580359392,0.014168867788816502,-0.003604113075056709,-0.006722477495566418,0.001373772379273946,0.05932587016230806,0.05600001283063946,0.04606593803608897,0.047208768402241405
104198416.54179035,2.966814053859076,2.745292829756181,-0.013859500152861222,-0.030081598137535796,0.015331132643890369,-0.008732677264239153,0.021690232709108907,0.01565241020163705,-0.001244282419282676,-0.0020160258648503735,0.007593107419508937,-0.0010017135888108894,-0.0063821863879253106,0.003051100841531386,0.057960192180345683,0.054234802234460575,0.047202724119799734,0.047595087478980176
104716061.3896741,1.9756454192527466,1.8817448200049058,-0.005906463057245412,-0.021570245827677224,0.0069354389666209815,-0.007761572817655866,0.014313401867111816,0.013989440868835658,0.0028760995412032728,-0.0025038518262319605,0.0017918146920467583,-0.002616285892874471,-0.00475759265471624,0.005209816140401585,0.051319962633130954,0.04794955259995316,0.04429033016675015,0.044565868635195655
105236543.56888622,0.6162642324892749,1.638639600655218,-0.00836057443483644,-0.01577661561656317,0.0045731324439692465,-0.0037700524632933905,0.008234404709092745,0.015099705361625793,0.0019823335451614804,-0.002429727807047071,0.0030718407741809786,-0.002267857028025674,-0.005112660096967494,0.004756070612610301,0.050457774090402814,0.04224280278116642,0.03959203231806377,0.03990027766227043
105751362.7630271,-0.0037740475071318586,1.464566095973914,-0.009032218050889926,-0.013348824139810565,0.004197426178925175,-0.0012826003458596036,0.004301140106302162,0.01516507625133049,0.0015654518695345527,-0.003055563557044521,0.004351924506647579,-0.0014370515719696229,-0.0059898754811655635,0.004565114234048473,0.044326263596024665,0.04102301794334998,0.03881377537221711,0.039194923728856676
106271844.9623893,-0.13708123786776094,1.1867118387093576,-0.009549008243210807,-0.010397992629481346,0.005497467403645385,0.000678374065313124,0.0025674456824300042,0.011203713721300001,-0.0006356007743662593,-0.002453530973775316,0.005983891912763947,0.00019163491446445594,-0.005375286075567428,0.00228889099635865,0.04513574281288926,0.04060291148927645,0.039082064374436,0.03940541707028306
106792286.01079626,-0.4312473655627029,1.3384203241132746,-0.016849308815061623,-0.0074043775208934935,0.008679874685362283,0.002281366262690561,0.004335047461265295,0.008957397926643651,-0.006125501458459119,0.0007411414881873098,0.009976660362011502,0.0009857819928748713,-0.0038059838538884202,-0.0017720985307089342,0.044469085768050295,0.03974939573383542,0.03748484728032948,0.03817623586311047
107307189.69179171,0.12671175264444415,1.1828442443987308,-0.011676043005817588,-0.007115017453035555,0.0038180752347344703,-8.121588353268632e-05,0.0085398380744397,0.006514363033213953,-0.003434948786249308,0.0015827303118532427,0.0035916600177041875,0.000144857240339041,-0.000157268399080864,-0.0017270303845933186,0.043724349616565183,0.039428670257876025,0.03805954942312547,0.03819201863925014
107827622.07716078,1.62667787516636,0.8056814000720545,-0.002821034109227478,-0.010250345401485717,0.0033660052278017397,-0.0018465224684549985,0.012388633353201515,-0.0008367366018425904,-0.000965669704050593,0.00021519580091486907,-0.0009412338216940744,0.002463147347801833,0.0019154479887664823,-0.002686887611772995,0.042365087420109464,0.03847570343268918,0.037231400306745724,0.03731323374402069
108348063.32522053,1.5003942726306538,0.451720222627657,-0.003361038501547709,-0.004959660876624934,0.005030971763072237,-0.002767693500907644,0.010378140200666849,-0.0043207190846720565,-0.0037546426607066,0.002642758778044856,0.0010297579156941662,0.001235504272574718,0.0027682276606890406,-0.003921605966233421,0.039642941931603025,0.03631704517568251,0.035412143986609246,0.035629218659812154
108862921.09608546,1.4511319983765367,-0.10348696846172825,0.003945531483665804,-0.00230917240097099,0.0014357030144340529,-0.00324381503499539,0.006381653690329107,-0.006209900752461616,-0.0003437103466402297,0.0012400692176797216,-0.002484062152702565,0.0006800187688754081,0.002826122144122943,-0.0019184376313871741,0.04356508911641347,0.03843519658913202,0.03794368502692898,0.03802885801427262
109383343.23242787,3.397535682952657,-0.46962666405392023,0.01877234472063892,-0.011077347969557536,-0.00015240324361746608,-0.005405054775357766,0.008946348526755054,-0.011083887258852239,0.0070814186790320996,-0.004359353363020115,-0.009354936845529717,0.0038016996748378726,0.0022221312097160024,0.0006090406446864775,0.048075413018459315,0.043012153510766954,0.04015908913253109,0.040886993120781395
109900978.98894505,3.7776543358759223,-0.2113924682602192,0.015910609427522055,-0.014294048969254049,0.003592598615052448,-0.004670734733586203,0.011082161717975773,-0.011620586057710327,0.005166846802479735,-0.004634981767675108,-0.006618872583701608,0.005536687579576136,0.0014143416551675432,-0.000864021686002015,0.04783134908754678,0.042340632547712254,0.039261116666968916,0.039789858358847394
110418700.1865307,2.7364607452139764,-0.04511470169537892,0.006925890156774927,-0.008533853368450117,0.005993234597315359,-0.004228344925356931,0.009237704732799503,-0.009394631193076836,-7.413418000350118e-05,-0.0007782872205061894,-0.0013936427324172408,0.003155062358374212,0.0014736933157296214,-0.002382691541162564,0.04800342847783158,0.04204606651817798,0.040640259026571965,0.04072111492113326
110939122.34193347,1.4541615852015135,-0.11827485576149803,0.001598757363343332,-0.002042948008666714,0.0057861549238989,-0.0029278487704182616,0.004450835005321322,-0.006864950513473795,-0.002802770635997315,0.0014144669023712026,0.0018521520704021166,0.0010049305338545892,0.0009884457528542688,-0.0024572246235300336,0.0471585659595954,0.04124613223780588,0.040778144117011,0.04086427152075271
111453966.83762555,-0.05863791632309948,0.11128109617636374,-0.004226228054177283,0.00188874572136013,0.002313788538146548,-0.0007526274572446268,0.0014404981961945525,-0.0006641769442796634,-0.0032787214013807508,0.002498866188147011,0.0024827048515511946,-0.0009216528845381374,0.0008306274249673144,-0.0016118241788698237,0.044664475628706624,0.039015882248721774,0.0388878448740743,0.039004746343232144
111974425.58878449,-1.1607644488506366,0.5981394665461229,-0.009119820557565932,0.002142630595741637,-0.0022584922771514914,0.00029237312582275056,0.0018667779987479307,0.007076531114401496,-0.0019644029589466726,0.002926888018907676,0.0009294945213195436,-0.002896757950050234,0.0010869095358086362,-8.2131166938381e-05,0.04346483367432011,0.03825703265816721,0.03760980122860094,0.0377102597176147
112494964.32153696,-1.2986198421791197,1.0606116383335213,-0.01277442444734415,-0.0008091700192754998,-0.0029696845218106257,0.0011822900322872975,0.004969639101556172,0.010401349854591917,-0.0019391832353374988,0.0028212350182624988,0.0006366146150632665,-0.0024246301041765165,0.0013441524431239262,-0.0004381887369261248,0.04886091092833012,0.04192330636474506,0.04067957052371182,0.04076060275738803
113009747.72923654,-1.6691218508755408,1.292857576948659,-0.014941225190368878,-0.003058029548185884,-0.0026759233590689384,0.003497153203495518,0.0037509633093726303,0.013427061584758614,-0.0015210392699750552,0.0011111714733427725,0.0019533376318225035,-0.0011315524359180186,-0.0004142457324286841,2.328333193612742e-06,0.0497152695187075,0.04376796554699084,0.042025127397517716,0.04205885193514712
113530267.90715688,-2.9141812243170873,1.6736192865920825,-0.01981066412227811,-0.004206883130857567,-0.004015408310813198,0.007281574380531304,-0.00028241933505423567,0.02103380051846668,-0.0005964628889120755,-0.0010370177513052091,0.0040111134150329535,-0.0007414725744386651,-0.0034498989969923275,0.0018137387965715865,0.049548382762488574,0.045152869175426165,0.041601351205646016,0.04173390432202618
114047914.68420975,-3.8051492096767716,2.0452873043295123,-0.024706936177900075,-0.005140939656497291,-0.0048251778069189925,0.010004501980809865,-0.0019242081996926313,0.026592759860211795,-0.0006280583000724053,-0.001995063334353952,0.005644992385081818,-0.0004585371065845932,-0.005070386368721904,0.002507052724794069,0.05400827120037556,0.04906445860414989,0.043791011663300766,0.04405510009805116
114565572.41629145,-4.7260971397683385,2.3830176183235343,-0.029744821203675484,-0.004908654583856883,-0.006422023407324452,0.012501372099068507,-0.002843229983093751,0.03141735707889044,-0.0009779812233381801,-0.0021114800500528826,0.0065703511826234635,-0.0004806019102535783,-0.005640204272657463,0.0026399162736468152,0.05561425834071349,0.05226817925933027,0.045070515846679204,0.04540015930343304
115086046.94260581,-5.761326322352663,2.5470572359434094,-0.03374540789961848,-0.0024575096273356956,-0.008536347638554232,0.014171666426570794,-0.0051808109198578905,0.03574840965876976,-0.0012808686495779599,-0.0015525397128725658,0.007273163376978181,-0.0016247801637223021,-0.006067234371628292,0.003252259520767776,0.058053174001849325,0.05401121186480981,0.04484966837052196,0.04524474922155753
115600874.6046452,-6.199140332189187,2.5245346945784135,-0.033527233743376544,-9.862812272815644e-06,-0.0120830588850769,0.013374759479462416,-0.005357295899173915,0.0376026918604274,-0.00016981051152716012,-0.0005389125212691723,0.00490569529877166,-0.0036074261171149553,-0.004788523769974477,0.004198977621065623,0.05685540906958919,0.053643681088905895,0.043776342654451586,0.04407443755605273
116121345.91678718,-6.282793304029802,2.461581338049223,-0.031132067376647175,0.0013349521662556819,-0.016324893401941907,0.011920474776947756,-0.004137428612173408,0.03833896244753956,0.0019830415626840535,0.00012283907612900495,0.0008730231137134782,-0.005281409323057175,-0.0028834294058290035,0.00518593497638088,0.0544600148233167,0.05201995378317677,0.041840978573752734,0.042110974802773385
116641796.62321341,-5.697227818405811,2.3985492516797486,-0.026363093396191792,-0.0006837117356572441,-0.01865262225968242,0.009844029766327358,-0.0018493987693528487,0.03770479639455596,0.004882750850933989,-0.0006095400924364765,-0.0030542299756401714,-0.005767836367310982,-0.0018908644126099528,0.006439719997015064,0.054168652322917094,0.05094109474703504,0.041726832953924826,0.042168167394522914
117156615.19069561,-4.778852076875879,2.5167290359171197,-0.022647729388784874,-0.005985593797748084,-0.019080056596905814,0.009159287506653489,0.0022141673789920764,0.03633992489777725,0.007222952921865548,-0.0023779939682971735,-0.0059514658466790875,-0.00398075608196092,-0.001378615613118722,0.006465878588164322,0.05410985498873108,0.050180847736137936,0.04177311194245939,0.0423778159158126
117677076.64705881,-4.441007280610411,2.9385144680676434,-0.026911145304515365,-0.011606536874819075,-0.0137424824745406,0.01128465389071171,0.0037386953730928086,0.037236815390082494,0.005176159613749024,-0.004052489372423949,-0.0014675737738129746,-0.0009813282866253043,-0.0038127887784437584,0.005138020597489418,0.05522575072705534,0.051362578726665206,0.042151631850894836,0.04250516041071846
118197517.42445403,-2.9928726719431715,1.5361118104145803,-0.023873301549977893,-0.013440397793584294,-0.011648684078514533,0.01126605963260102,0.005725013385709465,0.03197131040377425,-0.017409864003831405,-0.012800695799143462,-0.008841298126101642,0.008381882946238369,0.005011991516993907,0.0256579834652132,0.05771799851531863,0.05080373977315197,0.04350851545536285,0.04801713788171675
118712379.16334656,0.49477769084877476,-1.0977757308319922,-0.019222025102928485,-0.010804723395409874,-0.01289241953813917,0.00942996349374273,0.009806723100929747,0.02368248144180985,-0.0137299560916763,-0.0070395763774488505,-0.011991903249671762,0.008595997628981894,0.006044333338220684,0.01812110475129707,0.059013933441448715,0.04927007021430584,0.04428630561812259,0.04841427109553602
119232819.8998138,2.9012996783215947,-2.9305147554996847,-0.029520907626049885,-0.010323260727196207,-0.009855499478303099,0.008906698816974623,0.015057389482486158,0.025735579532092795,-0.0012504653478946888,0.0017310156715467635,-0.001753284389225071,0.0007963276176289426,0.002994910351949611,-0.0025185039038921587,0.05974422660206786,0.050321963047721886,0.042985044124096455,0.04307421116099765
119750411.62082055,1.8098263295400037,-3.3151032747448945,-0.02682451285049356,-0.020042296183330897,-0.007550955833394329,0.008496672677199692,0.018790137004393002,0.027130955185630825,0.0015660937343287289,-0.002068405414455903,-0.0023554960737887046,0.0032965905480776595,0.0008006061217993813,-0.0012393889159793775,0.05510796091015655,0.04945363170433442,0.040793499296346764,0.040901512398998884
120268048.99453995,1.1084679610393513,-2.9335389257700486,-0.01818635545741955,-0.0214634669282824,-0.009602169884341075,0.0062752968816499576,0.018067338468144505,0.024909356920262006,0.00573886170622458,-0.004103301243687018,-0.006340220066021758,0.003006565865851564,0.0006907992012780011,0.0010072945362821018,0.0503972213042091,0.04732844673086279,0.040185833312365374,0.04060175136709437
120788450.0293906,2.763233045009113,-2.85407681007499,-0.028492364994126152,-0.009454193669550031,-0.008618819998984435,0.00596270263795015,0.013891838247557452,0.02671083777714658,-0.0011057403291505764,0.00247508555340206,-0.000902679077017446,-0.0017718081129279094,0.001963919507515377,-0.000658777541801537,0.06433307448764322,0.04639309174027633,0.03888601024770004,0.038949929709055996
121303352.00845969,3.6588079449684403,-3.2341669133402062,-0.03922335797121692,-0.00692522685237734,-0.004087819265576906,0.007790192244696736,0.012637730774920301,0.029808481069542786,-0.006915398321869579,0.005033840109785614,0.006090337531373861,-0.002408307224915084,0.0006946709986333817,-0.002495143092826448,0.06496083063027452,0.047058370398399885,0.0362176600677184,0.036771624349160405
121668082.35092588,2.9320067010318063,-3.48529336648986,-0.04010116051187987,-0.012077248970831076,0.0004893778305630314,0.007276408101066667,0.014692984546807447,0.02971963900427795,-0.0077596511917375245,0.003783732057550154,0.008740577202643287,-0.0009734582860653083,-0.0011599872628978486,-0.0026312125194660396,0.05556376212856828,0.04794101571019422,0.036497066218273526,0.03721239108374998
122089717.16559404,2.713180121776568,-3.554210832547983,-0.04091262919153707,-0.014209538118494647,0.0043705874321876325,0.007050337362688894,0.0132920275443004,0.03040921497085464,-0.008621350719215591,0.002756188681678839,0.012029878506807479,-0.0006188310430192408,-0.0036535271269613505,-0.0018923582992901393,0.0494015818521095,0.04833622923941606,0.036194016008306684,0.03723450498450443
124935304.90564561,1.708875852755866,-2.650443317815956,-0.026604626945998838,-0.01247536984914179,0.004154896864603085,2.5711344110387552e-05,0.007855148790862933,0.02704423979556497,-0.003284543334989303,0.001126855136842494,0.009033319450792276,-0.004845454280967464,-0.005738633437075396,0.0037084564654083765,0.049556964785604236,0.04497683703977068,0.03820260765691077,0.0389116336644301
125452958.76274681,1.9678745539526692,-2.288847668730086,-0.024405373989549044,-0.00948846718305033,0.0030268658446845273,0.001380444693495416,0.004829905210914075,0.02465662542351181,-0.003067828958853062,0.0008129000140092354,0.00856432773065325,-0.004159665586465975,-0.005456027579257111,0.0033062943799274623,0.04692896599801576,0.04162540227553069,0.03588106733476343,0.03653626069813364
125970586.99458848,2.2731122941945703,-1.84002621690817,-0.022289500216226173,-0.005571972563861276,0.00341796555395706,0.001976185857600701,9.56112590759522e-08,0.022467225757269907,-0.0034538981553247734,0.0006736467596422613,0.00973427956620598,-0.004342876028592585,-0.006231338500214419,0.003620186358280765,0.04459749199209491,0.037875069196151634,0.032868669102391404,0.03376184235483701
